svm_type c_svc
kernel_type rbf
gamma 0.33333333333333331
nr_class 2
total_sv 23
rho -0.79767005518716672
label 0 1
nr_sv 14 9
SV
0.25459674475786676 1:0.493723 2:0.552538 3:-0.736656 
0.091264858327923082 1:-1.508216 2:1.341933 3:-2.731901 
0.16789130987737186 1:-1.29852 2:4.948413 3:-3.291105 
1 1:0.614499 2:-0.082492 3:-0.35392 
1 1:0.853432 2:0.552538 3:-0.736656 
1 1:-0.57375 2:-0.71843 3:0.20573 
0.054905321757058423 1:0.02095 2:-4.114773 3:0.146489 
1 1:-0.437866 2:0.129542 3:1.030976 
0.92549434273930686 1:-0.665547 2:-0.744006 3:0.444996 
1 1:1.1413 2:0.222235 3:-0.425655 
0.77482814554622936 1:-0.884927 2:-0.898824 3:2.145963 
1 1:0.265725 2:0.257423 3:-0.165353 
0.18944437306014944 1:0.054533 2:-3.262263 3:0.087163 
0.13019717758808191 1:-1.704186 2:3.347596 3:-2.126175 
-0.58862227365398778 1:0.262991 2:-0.724783 3:1.444131 
-1 1:1.270162 2:0.512813 3:-0.112386 
-1 1:0.246574 2:-0.677715 3:1.761714 
-1 1:1.103142 2:0.414138 3:0.13702 
-1 1:1.257198 2:0.219966 3:0.016631 
-1 1:0.161467 2:-0.598717 3:0.601631 
-1 1:0.045856 2:-0.061 3:0.202929 
-1 1:0.524284 2:-0.401368 3:0.10282 
-1 1:0.429738 2:-0.171555 3:0.395053 
