svm_type c_svc
kernel_type rbf
gamma 0.33333333333333331
nr_class 2
total_sv 98
rho 0.46965788783317763
label 1 0
nr_sv 46 52
SV
1 1:0.158983 2:1.169788 3:-0.830975 
1 1:-0.737145 2:-0.970789 3:0.9392 
1 1:-0.520161 2:-1.066249 3:0.871721 
1 1:1.25988 2:0.373299 3:-0.015372 
1 1:-1.433887 2:-0.381114 3:0.539738 
1 1:-0.938674 2:0.428721 3:-0.193873 
1 1:-0.319784 2:0.410277 3:0.99032 
0.41189502401693939 1:0.614614 2:0.413336 3:0.230608 
1 1:-1.924277 2:-0.230232 3:0.428716 
1 1:0.294463 2:-1.079085 3:0.663109 
1 1:-0.229968 2:-0.655168 3:0.672531 
1 1:-1.131243 2:-0.2338 3:1.315046 
1 1:0.204935 2:-3.25817 3:1.807449 
1 1:0.755509 2:0.374828 3:-0.395227 
1 1:0.123215 2:1.030212 3:-0.131486 
1 1:0.661537 2:-1.051374 3:0.573859 
1 1:0.776146 2:0.414356 3:-0.022629 
1 1:1.313244 2:0.838272 3:-0.013207 
1 1:-0.406488 2:-0.339548 3:0.405862 
1 1:-0.418866 2:-0.956423 3:0.767956 
1 1:0.976289 2:0.593969 3:-0.476139 
1 1:-0.300587 2:-0.380605 3:0.413119 
0.67139956855530214 1:0.832407 2:-3.298717 3:1.688088 
1 1:-0.807098 2:-0.327221 3:0.741093 
0.66258286059319327 1:1.080931 2:0.509816 3:0.04485 
1 1:0.272171 2:0.414865 3:-0.149247 
1 1:0.627028 2:0.427702 3:0.059365 
1 1:0.0678 2:-1.051374 3:0.573859 
1 1:1.114144 2:0.841331 3:-0.772918 
1 1:0.977567 2:0.497999 3:-0.416999 
1 1:-0.364045 2:1.126692 3:-0.317244 
1 1:0.088904 2:-0.642332 3:0.881143 
1 1:1.240089 2:0.841331 3:-0.772919 
1 1:0.415226 2:-1.065739 3:0.745103 
0.80414128008104491 1:-0.232415 2:-0.370827 3:1.381443 
1 1:-0.986011 2:-0.793214 3:0.992165 
1 1:-0.736588 2:-0.369807 3:1.128205 
1 1:1.218588 2:-0.817867 3:0.321704 
1 1:-0.048411 2:1.425907 3:0.093805 
1 1:-0.516041 2:-1.447579 3:0.475186 
1 1:1.335932 2:0.594479 3:-0.602757 
1 1:0.539407 2:-2.451393 3:1.83355 
1 1:1.38953 2:0.456432 3:-0.283124 
1 1:0.042143 2:1.1 3:-0.481231 
0.71447451945946105 1:1.244748 2:-0.051128 3:0.101825 
1 1:0.072604 2:0.372789 3:0.111247 
-1 1:-0.703626 2:0.101376 3:2.985025 
-0.25960040410634133 1:-0.875 2:-3.442463 3:0.026449 
-1 1:-0.652205 2:-1.930996 3:1.657214 
-0.64558728551016487 1:0.233884 2:-0.45966 3:-0.332078 
-1 1:-1.50348 2:-0.71161 3:1.104269 
-0.39093502368800886 1:-2.78838 2:1.114875 3:-0.779093 
-1 1:0.772314 2:0.702265 3:-0.200048 
-1 1:0.487806 2:-1.530713 3:0.742938 
-1 1:0.452092 2:0.414865 3:-0.149247 
-0.045895072287628146 1:0.882677 2:1.020434 3:-1.09981 
-1 1:-0.142329 2:-1.066249 3:0.871721 
-1 1:-0.341087 2:0.001746 3:0.556417 
-1 1:0.625247 2:0.756668 3:-0.125311 
-1 1:0.12998 2:0.688409 3:-0.155422 
-1 1:1.296241 2:0.511345 3:-0.335005 
-1 1:-0.199741 2:-0.779359 3:0.947539 
-1 1:0.342916 2:-0.230742 3:0.555334 
-0.82420663482373058 1:-1.236982 2:0.084879 3:0.288665 
-1 1:0.28903 2:-0.323653 3:-0.145238 
-1 1:-0.899038 2:0.002255 3:0.429798 
-1 1:-0.881819 2:-0.134772 3:0.496195 
-0.4394773614584257 1:1.601027 2:0.282426 3:-1.222418 
-1 1:-1.113592 2:-1.298736 3:0.870639 
-1 1:0.777694 2:0.688409 3:-0.155422 
-1 1:0.881795 2:1.115384 3:-0.905712 
-1 1:-0.327413 2:-1.516348 3:0.571694 
-0.72572399508596741 1:1.636399 2:0.7474 3:-1.220253 
-1 1:0.319562 2:-0.680331 3:0.128688 
-1 1:-0.9707 2:-0.230232 3:0.428716 
-1 1:-0.268525 2:-0.324163 3:-0.018619 
-1 1:-0.020379 2:0.195214 3:0.058282 
-1 1:-0.136751 2:1.746116 3:-1.312432 
-1 1:-0.142869 2:-0.230742 3:0.555334 
-1 1:-0.509564 2:-1.69596 3:1.025203 
-1 1:0.283578 2:-0.680331 3:0.128689 
-1 1:-0.826674 2:0.001236 3:0.683036 
-1 1:0.420461 2:1.006069 3:-0.928566 
-0.28745902086029751 1:-1.08216 2:0.937301 3:-0.832058 
-0.080576492490307211 1:-2.571504 2:0.927013 3:-1.673763 
-1 1:0.792159 2:0.743832 3:-0.333923 
-1 1:1.086419 2:0.263983 3:-0.038226 
-0.17126311171985692 1:-1.172678 2:1.911874 3:-1.721316 
-1 1:1.119524 2:-2.323634 3:0.672211 
-1 1:1.134565 2:1.020435 3:-1.09981 
-1 1:1.336832 2:0.360462 3:-0.223984 
-0.24897205718827586 1:-0.138029 2:-3.208956 3:-0.225706 
-1 1:-1.166291 2:0.180849 3:0.229526 
-1 1:1.386004 2:0.511855 3:-0.461624 
-1 1:-0.514314 2:-0.710591 3:0.851032 
-0.14479679348693628 1:-1.707185 2:0.415467 3:3.098212 
-1 1:0.63122 2:0.416904 3:-0.655722 
-1 1:-1.505225 2:-0.985154 3:1.110444 
