svm_type c_svc
kernel_type rbf
gamma 0.33333333333333331
nr_class 2
total_sv 40
rho 0.72187128830298286
label 1 0
nr_sv 20 20
SV
1 1:1.285615 2:0.508017 3:-0.436306 
1 1:-1.014457 2:-0.380405 3:1.319145 
1 1:0.155036 2:0.975389 3:-0.004931 
0.058769083522496691 1:-0.257959 2:0.31044 3:1.021908 
0.787920995330189 1:0.293903 2:0.315361 3:-0.021188 
1 1:-0.834931 2:0.330223 3:-0.062036 
1 1:0.950331 2:0.50747 3:-0.320407 
1 1:-1.753779 2:-0.376578 3:0.507847 
0.71167514008860988 1:-0.240062 2:-0.53787 3:0.493571 
1 1:-1.296603 2:-0.538416 3:0.60947 
1 1:0.744504 2:0.272417 3:-0.246345 
1 1:1.078849 2:0.772794 3:-0.592063 
1 1:-0.33879 2:-0.493831 3:0.486928 
1 1:-0.879062 2:-0.98044 3:1.023597 
1 1:-0.440924 2:-1.68232 3:0.550383 
1 1:-0.712267 2:-0.48061 3:0.793779 
1 1:1.196263 2:0.772794 3:-0.592063 
1 1:0.951522 2:0.404532 3:-0.266274 
0.70091043154339061 1:0.809703 2:-1.610745 3:0.925644 
0.020961043930113409 1:0.331107 2:-1.087206 3:1.889028 
-1 1:-1.047132 2:0.064352 3:0.325519 
-0.79265332257153442 1:1.565731 2:0.672042 3:-1.001528 
-1 1:-0.615803 2:-0.020892 3:2.84775 
-1 1:1.097887 2:0.964903 3:-0.891281 
-1 1:0.913195 2:0.96545 3:-1.00718 
-1 1:1.120682 2:0.847649 3:-0.9122 
-0.13156774721192016 1:-0.77557 2:-3.822056 3:0.139634 
-1 1:-1.571653 2:-0.170701 3:0.399581 
-1 1:0.021168 2:0.079761 3:0.168772 
-0.96370146142106317 1:0.324481 2:-2.558712 3:-0.243959 
-0.71226841037015687 1:-0.731422 2:-0.622665 3:-0.188542 
-1 1:1.532755 2:0.173306 3:-1.00351 
-1 1:-0.646264 2:-0.974426 3:-0.251299 
-1 1:0.863059 2:0.964902 3:-0.891281 
-0.60308758334451307 1:-1.032925 2:0.270776 3:0.101354 
-0.076958169495611906 1:-1.551391 2:0.316007 3:2.951355 
-1 1:-1.038191 2:-0.111254 3:0.236191 
-1 1:-1.277531 2:-0.992568 3:0.484946 
-1 1:-0.864788 2:-0.376578 3:0.507847 
-1 1:-0.160254 2:0.170024 3:-0.308112 
