svm_type c_svc
kernel_type rbf
gamma 0.33333333333333331
nr_class 2
total_sv 125
rho -1.0466691495851717
label 0 1
nr_sv 63 62
SV
1 1:-0.859918 2:0.410288 3:-0.408712 
1 1:-0.324195 2:-0.444083 3:0.235483 
1 1:-0.794884 2:-0.444083 3:0.235483 
1 1:-1.263597 2:0.907726 3:0.229625 
1 1:0.254204 2:0.833974 3:-0.037213 
1 1:-0.999148 2:0.320122 3:0.09688 
1 1:0.883689 2:-1.206887 3:0.096647 
1 1:1.226288 2:0.411687 3:-0.686151 
1 1:1.621589 2:0.488239 3:-0.974191 
1 1:0.145475 2:-0.568559 3:0.099018 
1 1:-0.292109 2:-0.573225 3:1.023814 
1 1:0.34966 2:-1.247729 3:0.749304 
1 1:0.539379 2:-1.20922 3:0.559045 
1 1:0.397231 2:-1.121854 3:0.60833 
0.19004857719498092 1:-1.108897 2:0.235088 3:-0.414803 
1 1:0.834141 2:-0.94572 3:0.429462 
1 1:-0.182894 2:-0.359515 3:0.839646 
1 1:-0.404024 2:-0.143473 3:0.193079 
0.9529447061609333 1:0.936579 2:-0.289579 3:-0.618036 
1 1:0.709047 2:-1.031688 3:0.102738 
1 1:0.651843 2:0.098397 3:-0.611154 
1 1:1.632587 2:0.50092 3:-1.006784 
1 1:-0.423542 2:-0.133125 3:0.622884 
0.68182540946385073 1:-0.743971 2:-0.581707 3:0.224091 
1 1:-0.495698 2:0.316389 3:0.836717 
1 1:-1.27902 2:0.69495 3:0.228835 
1 1:-0.055713 2:0.144922 3:0.090789 
1 1:-0.957194 2:0.715647 3:1.088444 
1 1:-1.379355 2:0.033126 3:-0.078269 
0.66167049772711928 1:-1.091529 2:-0.235972 3:1.161069 
1 1:-0.079358 2:-0.80903 3:0.625812 
1 1:1.635898 2:0.788849 3:-1.016594 
1 1:-0.782803 2:0.032193 3:0.106691 
1 1:-0.243252 2:-0.535648 3:1.018514 
1 1:0.172383 2:-0.938172 3:1.414144 
1 1:0.694268 2:-0.567626 3:-0.085941 
1 1:-0.416183 2:-0.534715 3:0.833555 
0.85950464305403751 1:0.494146 2:-2.995446 3:2.320433 
1 1:-1.420776 2:0.10268 3:1.020886 
1 1:0.123415 2:-2.078138 3:1.605751 
1 1:-0.258628 2:-0.28203 3:0.366647 
1 1:0.556403 2:-0.831126 3:0.043642 
1 1:-1.073329 2:0.096531 3:-0.241235 
1 1:-0.742905 2:0.009164 3:-0.290521 
1 1:-0.624573 2:0.707165 3:0.288721 
1 1:0.64654 2:-0.820311 3:0.380967 
1 1:1.643994 2:0.851787 3:-1.087082 
1 1:-0.055306 2:-0.661991 3:1.251968 
1 1:-0.106046 2:-0.524834 3:1.355839 
1 1:0.550284 2:0.160868 3:-0.589161 
1 1:-0.152644 2:-0.144406 3:0.378038 
0.27647387463961193 1:1.132339 2:1.429043 3:-1.384141 
0.92071718397459656 1:-0.335915 2:-0.75169 3:1.665081 
0.82868782263639196 1:-1.660388 2:-0.267483 3:-0.035865 
1 1:0.912385 2:0.751272 3:-1.011294 
1 1:0.271526 2:0.447864 3:-0.414013 
1 1:-0.274443 2:-0.663391 3:1.529407 
1 1:1.652262 2:0.914258 3:-1.065089 
1 1:-1.735699 2:0.317789 3:0.559278 
1 1:0.171943 2:-1.021806 3:0.625022 
1 1:0.158482 2:-1.197472 3:0.71141 
1 1:0.142149 2:-0.432335 3:0.387849 
1 1:-0.743375 2:-0.371263 3:0.68728 
-1 1:0.268545 2:-0.561943 3:1.26866 
-1 1:-0.876439 2:0.158069 3:-0.034284 
-1 1:1.566063 2:0.850387 3:-0.809643 
-1 1:-0.504092 2:-0.424319 3:1.280051 
-1 1:0.57567 2:0.686002 3:-0.478409 
-1 1:-0.359151 2:-0.519235 3:0.246084 
-1 1:-0.636215 2:0.017646 3:0.509202 
-1 1:0.209944 2:-0.445949 3:0.605401 
-1 1:-0.779744 2:0.405622 3:0.516084 
-1 1:0.883391 2:-0.442683 3:-0.041956 
-1 1:-0.652987 2:-0.445949 3:0.605401 
-1 1:-1.171467 2:0.107345 3:0.09609 
-1 1:-0.590433 2:0.105946 3:0.373528 
-0.22624314546026766 1:0.450372 2:0.006831 3:0.171877 
-1 1:-1.171295 2:0.106879 3:0.188569 
-1 1:-1.028205 2:-0.067854 3:0.089999 
-1 1:0.455 2:-0.344968 3:0.437134 
-0.57751901082304402 1:0.756901 2:-0.948986 3:1.076819 
-0.79625065482599577 1:0.835114 2:1.596312 3:0.194103 
-1 1:0.661461 2:-1.878509 3:1.731615 
-1 1:1.621056 2:0.913791 3:-0.97261 
-1 1:-0.687724 2:0.241703 3:0.754838 
-1 1:-1.232265 2:0.144455 3:0.183269 
-1 1:0.250643 2:-0.513552 3:1.600685 
-1 1:-1.181352 2:0.006831 3:0.171877 
-1 1:0.980855 2:-1.724005 3:0.878097 
-1 1:-0.784357 2:0.333269 3:-0.028193 
-1 1:-0.138272 2:-0.946654 3:0.614421 
-1 1:-0.289442 2:-0.962134 3:1.201892 
-1 1:-0.778363 2:0.105013 3:0.558488 
-1 1:0.540038 2:-1.804756 3:1.998453 
-1 1:0.758831 2:-1.802424 3:1.536055 
-1 1:0.031772 2:0.120493 3:-0.028983 
-1 1:0.992999 2:-0.908611 3:0.516641 
-1 1:0.364989 2:-0.822644 3:0.843365 
-1 1:-0.747502 2:0.106412 3:0.281049 
-1 1:0.365883 2:-0.231307 3:0.236273 
-1 1:1.36147 2:0.046274 3:-0.203342 
-1 1:0.334724 2:-0.910477 3:0.886559 
-1 1:0.851243 2:-0.355783 3:0.099809 
-1 1:0.131574 2:-0.530983 3:0.093718 
-1 1:1.081724 2:-0.342636 3:-0.025264 
-1 1:-1.07962 2:-0.056107 3:0.242364 
-1 1:-0.558708 2:0.105013 3:0.558488 
-1 1:1.4611 2:0.83724 3:-0.68457 
-1 1:-1.253917 2:0.11816 3:0.433415 
-1 1:0.572704 2:0.39714 3:-0.283639 
-1 1:-0.778363 2:0.105013 3:0.558488 
-1 1:0.39858 2:-0.574158 3:1.208774 
-1 1:1.527702 2:0.699616 3:-0.695961 
-1 1:1.622844 2:0.951368 3:-0.97791 
-1 1:0.553469 2:-0.22944 3:-0.133645 
-1 1:-0.011171 2:-0.357183 3:0.377248 
-1 1:-0.797991 2:0.158069 3:-0.034284 
-1 1:0.112762 2:-0.946654 3:0.614421 
-1 1:1.04024 2:-0.909077 3:0.609121 
-1 1:-0.343368 2:-0.434668 3:0.850247 
-1 1:1.615423 2:1.013839 3:-0.955918 
-1 1:0.32986 2:-0.89733 3:0.761486 
-0.77185990374221458 1:1.366805 2:0.71043 3:-0.358636 
-1 1:-1.065296 2:0.117227 3:0.618374 
-1 1:0.157838 2:-0.432335 3:0.387849 
