svm_type c_svc
kernel_type rbf
gamma 0.33333333333333331
nr_class 2
total_sv 54
rho -1.5709111276908851
label 0 1
nr_sv 29 25
SV
0.22009899884038303 1:-0.454771 2:-0.477 3:1.1998 
1 1:0.607759 2:-1.058117 3:0.251002 
1 1:0.549414 2:-1.234375 3:1.373995 
0.27040245828658227 1:0.995065 2:-0.553986 3:-0.544134 
0.42912938908613862 1:-0.591086 2:0.256105 3:0.997835 
1 1:0.043637 2:-0.473816 3:0.541106 
1 1:0.455862 2:-0.862592 3:0.190871 
1 1:-0.500376 2:0.098577 3:0.770275 
1 1:0.593051 2:-0.60571 3:0.059019 
0.14818668207534139 1:1.089648 2:-0.101578 3:-0.736117 
0.2579703181432576 1:1.24868 2:1.420531 3:-0.082578 
1 1:0.077095 2:-0.769151 3:1.054748 
1 1:1.093832 2:1.334449 3:0.055472 
1 1:0.834175 2:-0.334646 3:-0.482395 
1 1:0.073723 2:-0.96695 3:1.585375 
0.80246670068301407 1:0.449773 2:0.10449 3:-0.453015 
1 1:0.183481 2:-0.596076 3:0.59045 
1 1:1.122466 2:0.34901 3:-0.551703 
1 1:0.545557 2:-0.852049 3:0.534104 
1 1:0.31163 2:0.346281 3:0.012892 
1 1:0.732239 2:-0.974309 3:0.583448 
1 1:1.111428 2:0.543625 3:-0.423635 
1 1:0.550834 2:0.043587 3:-0.475393 
0.5561215000559302 1:0.515409 2:-1.516437 3:1.666274 
1 1:-0.370915 2:-0.699069 3:1.702656 
1 1:0.496564 2:1.344992 3:0.398705 
1 1:0.250257 2:-0.607529 3:0.435416 
0.39230562712672762 1:1.515831 2:0.423639 3:-0.844787 
1 1:0.29747 2:-1.146019 3:0.765448 
-1 1:0.265385 2:-0.854323 3:1.0046 
-1 1:0.932489 2:0.479994 3:0.118583 
-1 1:0.356424 2:-0.59926 3:1.249144 
-1 1:0.151599 2:-0.552994 3:1.775182 
-1 1:1.256986 2:-0.007227 3:-0.060438 
-1 1:0.623887 2:-0.77006 3:1.242947 
-1 1:1.081061 2:0.541351 3:0.046861 
-1 1:0.781248 2:-0.483905 3:0.103774 
-1 1:0.354956 2:-0.388644 3:0.591254 
-0.076681674297374519 1:0.923684 2:0.089853 3:0.050645 
-1 1:0.452942 2:-0.276017 3:0.010479 
-1 1:0.97861 2:-0.386369 3:0.120758 
-1 1:0.749257 2:-0.399187 3:0.248022 
-1 1:0.392833 2:-0.612987 3:1.564606 
-1 1:0.298812 2:-0.612077 3:1.376408 
-1 1:0.937329 2:-0.938586 3:0.766253 
-1 1:-0.066199 2:0.065128 3:0.116974 
-1 1:0.35035 2:-0.045679 3:0.321352 
-1 1:0.059249 2:-0.473816 3:0.541106 
-1 1:1.248227 2:0.346736 3:-0.081207 
-1 1:1.045432 2:0.346281 3:0.012892 
-1 1:1.262294 2:0.640251 3:-0.218452 
-1 1:0.169413 2:-0.60017 3:1.437343 
-1 1:0.890319 2:-0.938131 3:0.672154 
-1 1:0.325916 2:-0.022318 3:0.537321 
