svm_type c_svc
kernel_type rbf
gamma 0.33333333333333331
nr_class 2
total_sv 75
rho 0.69009455127363351
label 1 0
nr_sv 35 40
SV
1 1:0.984243 2:0.508702 3:0.160153 
0.46686797066870128 1:1.191093 2:0.719879 3:0.168313 
1 1:-1.451706 2:-0.474134 3:0.644389 
1 1:-0.285544 2:-0.776458 3:0.774324 
1 1:0.056563 2:1.08278 3:-0.012388 
1 1:-0.844575 2:-0.414681 3:0.84141 
1 1:0.578002 2:-1.213535 3:0.677776 
1 1:1.138409 2:0.874415 3:-0.640015 
1 1:1.231247 2:0.602098 3:-0.473516 
1 1:-1.158553 2:-0.311623 3:1.403011 
1 1:0.22244 2:-1.244104 3:0.765105 
1 1:0.007539 2:0.35754 3:0.22512 
1 1:0.689016 2:0.403394 3:0.094126 
0.49376061790130399 1:-0.468518 2:-1.10879 3:0.867696 
1 1:0.736768 2:-1.576999 3:0.98237 
1 1:0.339416 2:-1.229382 3:0.845334 
1 1:-1.017876 2:-0.928745 3:1.087079 
1 1:0.544575 2:0.418117 3:0.174355 
1 1:-1.926717 2:-0.307687 3:0.535757 
1 1:1.117583 2:-0.95594 3:0.431048 
1 1:1.20927 2:0.871041 3:0.103345 
1 1:0.002885 2:-1.213535 3:0.677776 
1 1:0.669027 2:0.359789 3:-0.270453 
1 1:0.88412 2:0.495666 3:-0.291756 
1 1:0.882883 2:0.601536 3:-0.349623 
1 1:-0.972024 2:0.419242 3:-0.073432 
1 1:1.001828 2:-0.56528 3:0.782484 
1 1:-0.353948 2:-0.473572 3:0.520496 
0.091072267618125841 1:0.53255 2:0.40227 3:0.341913 
1 1:0.200847 2:0.403956 3:-0.029767 
0.52727221846367367 1:-0.372544 2:0.398895 3:1.085273 
1 1:-0.562646 2:-1.650612 3:0.581227 
1 1:-0.456528 2:-0.428279 3:0.513394 
0.1073639218348288 1:0.653603 2:-1.486414 3:0.968168 
1 1:1.016414 2:0.874415 3:-0.640015 
-1 1:0.492588 2:-1.576437 3:0.858477 
-0.18694866628155796 1:1.223439 2:1.238441 3:-1.068503 
-1 1:-1.43189 2:-0.941218 3:0.511276 
-1 1:0.719288 2:0.97916 3:-0.450095 
-0.077127460099847139 1:-1.923057 2:1.573022 3:-1.657448 
-0.40072841475515991 1:-1.177741 2:0.358102 3:0.101227 
-1 1:-1.183214 2:-0.034808 3:0.245364 
-1 1:0.078138 2:-0.41187 3:0.221943 
-0.3556087728922897 1:-0.195251 2:1.872535 3:-1.167916 
-1 1:0.255449 2:-0.471884 3:0.148815 
-1 1:-0.530683 2:-0.415244 3:0.965304 
-0.057555057645262635 1:-0.271027 2:0.254481 3:-0.33648 
-0.006206736353706937 1:-0.133365 2:-0.456037 3:-0.018743 
-1 1:1.059879 2:0.951402 3:-0.982233 
-1 1:-1.737486 2:-0.095947 3:0.420023 
-1 1:1.251149 2:0.390359 3:-0.357783 
-0.77779736867095983 1:0.344836 2:-3.136725 3:2.258614 
-1 1:-0.082528 2:0.161647 3:0.173295 
-1 1:-0.744348 2:0.058128 3:3.037046 
-1 1:0.600972 2:-0.41187 3:0.221943 
-1 1:0.231311 2:-0.758924 3:0.235086 
-1 1:-1.192503 2:0.1458 3:0.340854 
-0.70479437871673911 1:0.929607 2:-0.046718 3:-0.454331 
-1 1:-0.012085 2:-1.271863 3:0.232968 
-1 1:1.162965 2:0.495666 3:-0.291756 
-1 1:0.584258 2:0.403956 3:-0.029767 
-1 1:1.036195 2:1.071994 3:-0.959871 
-1 1:0.444941 2:-1.590034 3:0.530461 
-0.32655263124790956 1:0.232618 2:-2.551961 3:-0.267902 
-0.45472251085370052 1:-1.542644 2:-0.41187 3:0.221943 
-1 1:0.626451 2:-0.486606 3:0.068587 
-1 1:1.27919 2:0.359226 3:-0.14656 
-1 1:-0.255325 2:-0.76286 3:1.10234 
-1 1:0.333891 2:-0.804216 3:0.242187 
-1 1:-1.003045 2:-0.307686 3:0.535757 
-1 1:-0.303774 2:-0.109545 3:0.092008 
-0.29602232323236766 1:-0.910347 2:-3.851281 3:0.142148 
-1 1:0.989558 2:0.23751 3:0.078865 
-1 1:0.792206 2:1.071994 3:-0.95987 
-0.042272675737132268 1:-1.716434 2:0.40462 3:3.147797 
